<?xml version="1.0"?>
<opencv_storage>
<cascade>
  <stageType>BOOST</stageType>
  <featureType>LBP</featureType>
  <height>13</height>
  <width>52</width>
  <stageParams>
    <boostType>GAB</boostType>
    <minHitRate>9.9500000476837158e-01</minHitRate>
    <maxFalseAlarm>5.0000000000000000e-01</maxFalseAlarm>
    <weightTrimRate>9.4999999999999996e-01</weightTrimRate>
    <maxDepth>1</maxDepth>
    <maxWeakCount>100</maxWeakCount></stageParams>
  <featureParams>
    <maxCatCount>256</maxCatCount>
    <featSize>1</featSize></featureParams>
  <stageNum>13</stageNum>
  <stages>
    <!-- stage 0 -->
    <_>
      <maxWeakCount>4</maxWeakCount>
      <stageThreshold>-1.5816649198532104e+00</stageThreshold>
      <weakClassifiers>
        <_>
          <internalNodes>
            0 -1 48 386932053 -41025 -1616904225 -189953 -1151336449
            -4396545 -107356161 -1073857539</internalNodes>
          <leafValues>
            -8.0894434452056885e-01 5.5284553766250610e-01</leafValues></_>
        <_>
          <internalNodes>
            0 -1 67 -1611646467 -205859 -3 -2236483 -74924289 -67372103
            -7340547 -1074263576</internalNodes>
          <leafValues>
            -6.5061140060424805e-01 6.2096309661865234e-01</leafValues></_>
        <_>
          <internalNodes>
            0 -1 31 487591220 2144673271 1025259444 1069357565
            -1146445827 -1078281218 -270548993 -21507</internalNodes>
          <leafValues>
            -6.5366190671920776e-01 5.2842241525650024e-01</leafValues></_>
        <_>
          <internalNodes>
            0 -1 43 536875573 -1076543617 -541196483 -1116875 -82969
            -67248195 -1073857601 -1140966844</internalNodes>
          <leafValues>
            -6.2822091579437256e-01 5.3155267238616943e-01</leafValues></_></weakClassifiers></_>
    <!-- stage 1 -->
    <_>
      <maxWeakCount>6</maxWeakCount>
      <stageThreshold>-1.4559611082077026e+00</stageThreshold>
      <weakClassifiers>
        <_>
          <internalNodes>
            0 -1 8 -287314321 1120100398 -1064073206 -1035483645
            -96212410 1124282627 -476584113 -754974721</internalNodes>
          <leafValues>
            -7.4054372310638428e-01 4.6513679623603821e-01</leafValues></_>
        <_>
          <internalNodes>
            0 -1 33 892338364 -48409091 -1358688355 -549511267
            -1182745410 -4334673 -6669889 -536870979</internalNodes>
          <leafValues>
            -6.5960878133773804e-01 4.6238112449645996e-01</leafValues></_>
        <_>
          <internalNodes>
            0 -1 98 -9439485 -489757297 -2076717056 -522274606
            -1328603114 86147072 -673001472 -134220829</internalNodes>
          <leafValues>
            -5.5230516195297241e-01 5.9201937913894653e-01</leafValues></_>
        <_>
          <internalNodes>
            0 -1 54 541332785 -33699 235647871 -49959 -3507269 -68554547
            -1077715201 -1080410658</internalNodes>
          <leafValues>
            -5.6006586551666260e-01 5.3996658325195312e-01</leafValues></_>
        <_>
          <internalNodes>
            0 -1 69 -3232758 1753857418 585509410 1342638735 -175655540
            22052175 1940973442 -201331569</internalNodes>
          <leafValues>
            -4.7665557265281677e-01 5.7314908504486084e-01</leafValues></_>
        <_>
          <internalNodes>
            0 -1 58 379600885 -4435748 419484639 -1646636707 -347276308
            -1346566661 1894436857 178796140</internalNodes>
          <leafValues>
            -6.1661911010742188e-01 4.4016680121421814e-01</leafValues></_></weakClassifiers></_>
    <!-- stage 2 -->
    <_>
      <maxWeakCount>7</maxWeakCount>
      <stageThreshold>-1.2540475130081177e+00</stageThreshold>
      <weakClassifiers>
        <_>
          <internalNodes>
            0 -1 35 618008477 -2404641 -1749560835 -1109452385
            -1145463297 -4552533 -1102074881 -1077277794</internalNodes>
          <leafValues>
            -7.6260370016098022e-01 2.9718005657196045e-01</leafValues></_>
        <_>
          <internalNodes>
            0 -1 24 -8392193 -575685 -1917632705 -1073772131 -891503633
            -1074719830 -14962757 176302634</internalNodes>
          <leafValues>
            -6.0631573200225830e-01 4.7751548886299133e-01</leafValues></_>
        <_>
          <internalNodes>
            0 -1 97 -5333 -459305765 2059128418 1793057662 -89166557
            583221523 -211302844 -144182273</internalNodes>
          <leafValues>
            -5.0566798448562622e-01 5.1226383447647095e-01</leafValues></_>
        <_>
          <internalNodes>
            0 -1 26 1579424212 -34319972 2065492731 -236068 -1152778248
            -5760516 -1143150343 -1087370020</internalNodes>
          <leafValues>
            -6.1347967386245728e-01 4.4320127367973328e-01</leafValues></_>
        <_>
          <internalNodes>
            0 -1 6 -355473650 -815894930 -1869625850 1077053442
            1396926789 1628661874 -146309371 1652015975</internalNodes>
          <leafValues>
            -6.4477753639221191e-01 3.6784100532531738e-01</leafValues></_>
        <_>
          <internalNodes>
            0 -1 45 449841525 1071153556 -1816586755 -612547651
            952678651 -1097066376 -1165181989 -1146748483</internalNodes>
          <leafValues>
            -5.4490369558334351e-01 4.5447179675102234e-01</leafValues></_>
        <_>
          <internalNodes>
            0 -1 16 -1405222876 -19529469 -779069057 2005610978
            -23596740 -3661813 -845627713 -1644614810</internalNodes>
          <leafValues>
            -5.7187116146087646e-01 4.1170683503150940e-01</leafValues></_></weakClassifiers></_>
    <!-- stage 3 -->
    <_>
      <maxWeakCount>6</maxWeakCount>
      <stageThreshold>-1.4327226877212524e+00</stageThreshold>
      <weakClassifiers>
        <_>
          <internalNodes>
            0 -1 37 -638788099 -2272835 -1711743521 -45059 -1345525319
            -541287175 725416703 -1079226468</internalNodes>
          <leafValues>
            -7.2025430202484131e-01 3.2948929071426392e-01</leafValues></_>
        <_>
          <internalNodes>
            0 -1 82 2234901 -1076537891 1524602367 -36337697 -1426458369
            -10769923 -1145315329 -1074910787</internalNodes>
          <leafValues>
            -6.3548719882965088e-01 3.9861765503883362e-01</leafValues></_>
        <_>
          <internalNodes>
            0 -1 21 -171704325 -169879349 889666267 1543089872
            -678822945 -2373298 -745541889 45297615</internalNodes>
          <leafValues>
            -5.3301239013671875e-01 5.1274383068084717e-01</leafValues></_>
        <_>
          <internalNodes>
            0 -1 79 -818967276 353959358 -49379 -1281392647 -21053442
            -1912619009 -154232 -1983939105</internalNodes>
          <leafValues>
            -4.5506197214126587e-01 5.0399088859558105e-01</leafValues></_>
        <_>
          <internalNodes>
            0 -1 38 -2069887586 1071985407 -1718095361 -1496260
            -1409439233 -275982 -604029188 -1175957892</internalNodes>
          <leafValues>
            -5.4014128446578979e-01 4.2657777667045593e-01</leafValues></_>
        <_>
          <internalNodes>
            0 -1 7 -336607441 -290459698 -1030040540 -1901313938
            -10762145 1261361315 -1330908266 -187959337</internalNodes>
          <leafValues>
            -4.8990169167518616e-01 4.9218165874481201e-01</leafValues></_></weakClassifiers></_>
    <!-- stage 4 -->
    <_>
      <maxWeakCount>7</maxWeakCount>
      <stageThreshold>-1.8276263475418091e+00</stageThreshold>
      <weakClassifiers>
        <_>
          <internalNodes>
            0 -1 96 -268441813 -272109059 -259792606 -757151781
            -1218978045 1667994634 -756035262 -134218753</internalNodes>
          <leafValues>
            -7.4347257614135742e-01 2.0578114688396454e-01</leafValues></_>
        <_>
          <internalNodes>
            0 -1 13 -332810 -10558881 -22917890 2054847982 1579701980
            2063555210 1607473886 -2098721</internalNodes>
          <leafValues>
            -5.7919609546661377e-01 4.2003270983695984e-01</leafValues></_>
        <_>
          <internalNodes>
            0 -1 55 1426128344 -1086531598 -678175529 -2263265 -75368451
            -1076657477 -1657210113 -74589524</internalNodes>
          <leafValues>
            -5.2626311779022217e-01 4.8784524202346802e-01</leafValues></_>
        <_>
          <internalNodes>
            0 -1 75 -55518244 -240163 1932039643 -1753975332 -337843204
            -5061383 -81199619 -1365759236</internalNodes>
          <leafValues>
            -4.9339312314987183e-01 4.6180486679077148e-01</leafValues></_>
        <_>
          <internalNodes>
            0 -1 84 -830477178 -691023361 -2055086979 -2396001
            -235676922 -1447355776 239646208 674233615</internalNodes>
          <leafValues>
            -5.1443022489547729e-01 4.1770780086517334e-01</leafValues></_>
        <_>
          <internalNodes>
            0 -1 61 -515509982 2119168975 -317000869 -170960434
            -394133548 -1103372101 -361238101 1887562306</internalNodes>
          <leafValues>
            -4.9995011091232300e-01 3.8471955060958862e-01</leafValues></_>
        <_>
          <internalNodes>
            0 -1 5 -270076993 -604045586 -269025537 -1368469770
            -134234177 -268452354 1064826847 1337457311</internalNodes>
          <leafValues>
            -4.0228793025016785e-01 4.8879256844520569e-01</leafValues></_></weakClassifiers></_>
    <!-- stage 5 -->
    <_>
      <maxWeakCount>7</maxWeakCount>
      <stageThreshold>-1.2545132637023926e+00</stageThreshold>
      <weakClassifiers>
        <_>
          <internalNodes>
            0 -1 86 -6292036 1027136442 -752413904 -48506521 -1280577091
            1062198695 -639632963 -1</internalNodes>
          <leafValues>
            -7.2818118333816528e-01 1.3663366436958313e-01</leafValues></_>
        <_>
          <internalNodes>
            0 -1 10 -814747857 651119434 -366900158 1189816746
            -237371573 643024987 -207097261 -675287045</internalNodes>
          <leafValues>
            -5.5315870046615601e-01 3.6775818467140198e-01</leafValues></_>
        <_>
          <internalNodes>
            0 -1 34 1314837 -19841 1392762879 -2230882 -19924049
            -37819445 -556109825 -1074306005</internalNodes>
          <leafValues>
            -5.2735590934753418e-01 4.0279147028923035e-01</leafValues></_>
        <_>
          <internalNodes>
            0 -1 40 -78657402 -705740926 786178568 -227856646 -144238833
            4987220 -170444847 -206579713</internalNodes>
          <leafValues>
            -4.0520551800727844e-01 5.4468494653701782e-01</leafValues></_>
        <_>
          <internalNodes>
            0 -1 68 16516284 1065195457 632816028 1066997981 -1342558721
            2075394106 -1313137953 1606355641</internalNodes>
          <leafValues>
            -6.9183415174484253e-01 3.4127429127693176e-01</leafValues></_>
        <_>
          <internalNodes>
            0 -1 59 -221909822 1817114510 -1302915700 1909958556
            -70411780 541639424 -572902586 1078449666</internalNodes>
          <leafValues>
            -6.2157052755355835e-01 3.2173061370849609e-01</leafValues></_>
        <_>
          <internalNodes>
            0 -1 52 1504714749 -1210272385 1930763773 2140763604
            -2000094982 -5578273 -629030147 -1075181411</internalNodes>
          <leafValues>
            -4.6547061204910278e-01 4.3195128440856934e-01</leafValues></_></weakClassifiers></_>
    <!-- stage 6 -->
    <_>
      <maxWeakCount>8</maxWeakCount>
      <stageThreshold>-1.5056627988815308e+00</stageThreshold>
      <weakClassifiers>
        <_>
          <internalNodes>
            0 -1 65 974076949 -34105345 959437311 -10781217 -1144266753
            -4205669 -1109704801 -1078260292</internalNodes>
          <leafValues>
            -7.5853019952774048e-01 2.3783784359693527e-02</leafValues></_>
        <_>
          <internalNodes>
            0 -1 91 -4194814 856685485 1791609600 1017379607 -1927366143
            457960359 -39846604 -581</internalNodes>
          <leafValues>
            -5.5658036470413208e-01 3.1705638766288757e-01</leafValues></_>
        <_>
          <internalNodes>
            0 -1 36 1062213560 -1615048483 -32129603 -67715 -1113802879
            -96118661 796658684 -1136902660</internalNodes>
          <leafValues>
            -6.4656257629394531e-01 2.8898015618324280e-01</leafValues></_>
        <_>
          <internalNodes>
            0 -1 9 -68950518 -438703762 -872193878 1383746122 1397702727
            -100580409 1355366930 1937983351</internalNodes>
          <leafValues>
            -6.5023744106292725e-01 2.8584000468254089e-01</leafValues></_>
        <_>
          <internalNodes>
            0 -1 49 -1082357464 -178714475 -1045085729 -8422449
            -740574466 -69228166 -1075860118 1326252032</internalNodes>
          <leafValues>
            -6.0380738973617554e-01 2.6348799467086792e-01</leafValues></_>
        <_>
          <internalNodes>
            0 -1 70 -301206906 42897894 -1878613822 548381198 1457067776
            6505242 -376978444 1088413902</internalNodes>
          <leafValues>
            -6.9767540693283081e-01 2.4975900352001190e-01</leafValues></_>
        <_>
          <internalNodes>
            0 -1 85 -1732206608 482350301 1567628413 -45286935
            -1077347331 -1885533899 -362873927 -1346883076</internalNodes>
          <leafValues>
            -5.7571852207183838e-01 3.2588946819305420e-01</leafValues></_>
        <_>
          <internalNodes>
            0 -1 27 5768717 -570783269 -1855464493 -2236523 -426803469
            -1179999553 -52174005 -1343330352</internalNodes>
          <leafValues>
            -5.8556765317916870e-01 3.0643942952156067e-01</leafValues></_></weakClassifiers></_>
    <!-- stage 7 -->
    <_>
      <maxWeakCount>9</maxWeakCount>
      <stageThreshold>-1.3402304649353027e+00</stageThreshold>
      <weakClassifiers>
        <_>
          <internalNodes>
            0 -1 94 -269491449 1189581527 -507513401 -224398881
            1956898642 1128004719 -42729596 -136314889</internalNodes>
          <leafValues>
            -7.0929467678070068e-01 1.1665543168783188e-01</leafValues></_>
        <_>
          <internalNodes>
            0 -1 53 -255334494 -36177409 2065420383 -70394938 -345379649
            -72101886 -742460417 -260578746</internalNodes>
          <leafValues>
            -4.6763858199119568e-01 3.8565865159034729e-01</leafValues></_>
        <_>
          <internalNodes>
            0 -1 60 67248180 -1119248683 -178937985 469194717
            -1463035730 -14033409 -1148634948 -1615197124</internalNodes>
          <leafValues>
            -6.2660390138626099e-01 2.8129625320434570e-01</leafValues></_>
        <_>
          <internalNodes>
            0 -1 2 -286389725 -824010513 -108560385 -758449330 -76893457
            1235208461 -211291205 -1014499465</internalNodes>
          <leafValues>
            -4.3372613191604614e-01 3.9567592740058899e-01</leafValues></_>
        <_>
          <internalNodes>
            0 -1 89 -335544445 720629757 2130407050 -2130117201
            2067789575 -852492563 1266063298 -429916713</internalNodes>
          <leafValues>
            -3.4937393665313721e-01 4.9209541082382202e-01</leafValues></_>
        <_>
          <internalNodes>
            0 -1 63 205006896 -1088479684 531905535 1607640029
            -1869899013 -456562 730479609 -268510979</internalNodes>
          <leafValues>
            -5.8585548400878906e-01 3.2197454571723938e-01</leafValues></_>
        <_>
          <internalNodes>
            0 -1 44 -305412894 -1064856928 -1561403166 1349074351
            -978327672 1120231342 -780159801 -214178906</internalNodes>
          <leafValues>
            -4.0770426392555237e-01 4.4513052701950073e-01</leafValues></_>
        <_>
          <internalNodes>
            0 -1 92 -281024716 231797405 1417780436 -1344740840
            1053491001 -1165257089 -1446110128 753925072</internalNodes>
          <leafValues>
            -6.1971890926361084e-01 2.7319222688674927e-01</leafValues></_>
        <_>
          <internalNodes>
            0 -1 57 682917885 -543534640 -266103343 -1747626755
            -1191119908 -1683072285 1812626397 789190716</internalNodes>
          <leafValues>
            -5.7192087173461914e-01 2.8234595060348511e-01</leafValues></_></weakClassifiers></_>
    <!-- stage 8 -->
    <_>
      <maxWeakCount>8</maxWeakCount>
      <stageThreshold>-1.2971079349517822e+00</stageThreshold>
      <weakClassifiers>
        <_>
          <internalNodes>
            0 -1 3 -294916241 1649137031 -1634244105 -252776250
            -76285569 2007471629 -74720289 -1569</internalNodes>
          <leafValues>
            -6.6044664382934570e-01 1.4423076808452606e-01</leafValues></_>
        <_>
          <internalNodes>
            0 -1 81 46670455 -2237985 -915808929 -2230819 -1343490049
            -2430150 -1368724561 -1077199777</internalNodes>
          <leafValues>
            -4.9971595406532288e-01 3.0644196271896362e-01</leafValues></_>
        <_>
          <internalNodes>
            0 -1 29 -576739928 998572559 508176558 1066998301 -376701733
            199774351 965517055 -1075081494</internalNodes>
          <leafValues>
            -4.9040749669075012e-01 3.4171563386917114e-01</leafValues></_>
        <_>
          <internalNodes>
            0 -1 12 -268775696 -296435244 -72218852 1487992702
            1333280880 1829849684 2013416702 2117753659</internalNodes>
          <leafValues>
            -6.8884932994842529e-01 2.4867391586303711e-01</leafValues></_>
        <_>
          <internalNodes>
            0 -1 50 -1007945438 -800067297 1609597570 1540355658
            858503876 1075339284 1701288612 1342423266</internalNodes>
          <leafValues>
            -5.2430754899978638e-01 3.1830894947052002e-01</leafValues></_>
        <_>
          <internalNodes>
            0 -1 17 -677188349 -626094258 -1734975518 1179763266
            -1400026561 -272938785 -144077839 1174691923</internalNodes>
          <leafValues>
            -5.9296745061874390e-01 2.5596636533737183e-01</leafValues></_>
        <_>
          <internalNodes>
            0 -1 42 1068240308 1036536797 -791045155 -1081027111
            -1308287059 -542471496 -1375192099 -1078714892</internalNodes>
          <leafValues>
            -6.7837977409362793e-01 2.4717128276824951e-01</leafValues></_>
        <_>
          <internalNodes>
            0 -1 73 -1540913662 -494562677 462653107 -501245234
            -162667587 -1950379929 -74187873 -1071389694</internalNodes>
          <leafValues>
            -4.5124316215515137e-01 3.5075139999389648e-01</leafValues></_></weakClassifiers></_>
    <!-- stage 9 -->
    <_>
      <maxWeakCount>10</maxWeakCount>
      <stageThreshold>-1.5966204404830933e+00</stageThreshold>
      <weakClassifiers>
        <_>
          <internalNodes>
            0 -1 93 -67375353 -144967233 -962899719 -780152329
            1633677826 -550769910 -1043346016 -262145</internalNodes>
          <leafValues>
            -6.2746781110763550e-01 2.0939335227012634e-01</leafValues></_>
        <_>
          <internalNodes>
            0 -1 20 108397649 -12745426 -136840705 2138544894 -376439891
            -72107537 -655558481 -1934098140</internalNodes>
          <leafValues>
            -5.6379741430282593e-01 2.3318269848823547e-01</leafValues></_>
        <_>
          <internalNodes>
            0 -1 78 -205529361 -73723246 -1560143732 -552502386
            -480406849 355867272 -26363185 1627628078</internalNodes>
          <leafValues>
            -4.3406724929809570e-01 3.5692054033279419e-01</leafValues></_>
        <_>
          <internalNodes>
            0 -1 87 -8651264 74234268 -1714162892 -1087637633 2127290685
            737925181 -1187699344 -1913921537</internalNodes>
          <leafValues>
            -5.0327849388122559e-01 2.9576227068901062e-01</leafValues></_>
        <_>
          <internalNodes>
            0 -1 32 493886576 -539655903 360723961 1035188565
            -1144087618 -1111940603 258636715 -42309127</internalNodes>
          <leafValues>
            -5.7323855161666870e-01 2.7282106876373291e-01</leafValues></_>
        <_>
          <internalNodes>
            0 -1 30 -5266269 1841737671 775893670 1919678207 1945603854
            40730454 -143207209 -744488961</internalNodes>
          <leafValues>
            -3.3570325374603271e-01 4.5768225193023682e-01</leafValues></_>
        <_>
          <internalNodes>
            0 -1 22 -456962763 -543735713 1343980029 -1759979859
            -356517448 -13974805 -1179960467 -1918414977</internalNodes>
          <leafValues>
            -3.5168042778968811e-01 4.3267610669136047e-01</leafValues></_>
        <_>
          <internalNodes>
            0 -1 4 1727161346 1156368426 -669858658 983336034 1091727388
            1294639175 1263486454 1174924407</internalNodes>
          <leafValues>
            -6.6812747716903687e-01 2.3200123012065887e-01</leafValues></_>
        <_>
          <internalNodes>
            0 -1 62 -269551681 -1107552588 -4145 1473641775 -1083254790
            -17891415 2122116776 -205569016</internalNodes>
          <leafValues>
            -3.7687069177627563e-01 4.1726678609848022e-01</leafValues></_>
        <_>
          <internalNodes>
            0 -1 71 -1005074941 -425281593 -66156542 34339482 -91371314
            31656192 1176752814 -498339750</internalNodes>
          <leafValues>
            -3.9567077159881592e-01 4.1021472215652466e-01</leafValues></_></weakClassifiers></_>
    <!-- stage 10 -->
    <_>
      <maxWeakCount>10</maxWeakCount>
      <stageThreshold>-1.2680425643920898e+00</stageThreshold>
      <weakClassifiers>
        <_>
          <internalNodes>
            0 -1 83 -50349028 -209716769 -132024195 -6564659 -123011955
            -1439709077 -491798904 -54527301</internalNodes>
          <leafValues>
            -7.0603293180465698e-01 -2.6936026290059090e-02</leafValues></_>
        <_>
          <internalNodes>
            0 -1 1 -292573585 1652007523 -1013330433 -804275842
            2095838175 1790865359 -145762317 -2571</internalNodes>
          <leafValues>
            -3.9706602692604065e-01 3.7541657686233521e-01</leafValues></_>
        <_>
          <internalNodes>
            0 -1 28 -705949228 -8707868 -78163489 -71315334 -1182483028
            -486763794 -1034505246 -1058485526</internalNodes>
          <leafValues>
            -5.0375074148178101e-01 2.6690447330474854e-01</leafValues></_>
        <_>
          <internalNodes>
            0 -1 77 951593468 -67325507 154983933 -1082371236 2023270141
            -73906003 -1142358019 -1977868292</internalNodes>
          <leafValues>
            -6.3334447145462036e-01 2.0544256269931793e-01</leafValues></_>
        <_>
          <internalNodes>
            0 -1 99 -1366298877 220979189 -285282764 -1296564234
            -285217452 1433927534 -1216350892 -675285673</internalNodes>
          <leafValues>
            -3.6108970642089844e-01 4.1637891530990601e-01</leafValues></_>
        <_>
          <internalNodes>
            0 -1 46 -691011862 -1802972766 493007616 1111751583
            -1694237042 147535 -15142195 1373632471</internalNodes>
          <leafValues>
            -4.6979552507400513e-01 3.0552545189857483e-01</leafValues></_>
        <_>
          <internalNodes>
            0 -1 41 4981315 -640810673 -1384398401 -13482558 -800457553
            -90503027 -911037953 -1348989956</internalNodes>
          <leafValues>
            -5.8826828002929688e-01 2.4998547136783600e-01</leafValues></_>
        <_>
          <internalNodes>
            0 -1 51 1927143894 2015253379 -1006096014 -1749461735
            1405604589 2683217 838737629 1394205115</internalNodes>
          <leafValues>
            -4.8962000012397766e-01 2.9627889394760132e-01</leafValues></_>
        <_>
          <internalNodes>
            0 -1 66 -103235596 527991294 906692652 926783747 -1383516948
            1070079177 950613193 532583899</internalNodes>
          <leafValues>
            -5.5973112583160400e-01 2.2744530439376831e-01</leafValues></_>
        <_>
          <internalNodes>
            0 -1 39 -120601310 -9451485 1629706240 -560035441 1256424260
            56889368 1904264167 -244582642</internalNodes>
          <leafValues>
            -3.8783794641494751e-01 3.7963443994522095e-01</leafValues></_></weakClassifiers></_>
    <!-- stage 11 -->
    <_>
      <maxWeakCount>9</maxWeakCount>
      <stageThreshold>-1.6420869827270508e+00</stageThreshold>
      <weakClassifiers>
        <_>
          <internalNodes>
            0 -1 14 -352325649 -924911741 -400309169 -435246242
            -541854337 1870640176 -205794305 -150995969</internalNodes>
          <leafValues>
            -6.7145240306854248e-01 2.1024966612458229e-02</leafValues></_>
        <_>
          <internalNodes>
            0 -1 23 -1076946497 -77874249 -1585410625 -413458733
            -1157877061 -1348501313 -566117125 -1880446072</internalNodes>
          <leafValues>
            -4.3018335103988647e-01 3.0132892727851868e-01</leafValues></_>
        <_>
          <internalNodes>
            0 -1 88 -521174014 1516476880 -138952193 1904990423
            -1081398514 -602998421 -2142509920 1079771129</internalNodes>
          <leafValues>
            -5.0633871555328369e-01 2.7409633994102478e-01</leafValues></_>
        <_>
          <internalNodes>
            0 -1 64 875041809 -35653578 -1140990603 -1085254570
            -1814368516 -34871877 776550125 -1078444716</internalNodes>
          <leafValues>
            -5.9291541576385498e-01 2.2474646568298340e-01</leafValues></_>
        <_>
          <internalNodes>
            0 -1 80 446179696 200078809 1093143007 -138919655
            -1079987284 -1343485751 -345996548 -1879570000</internalNodes>
          <leafValues>
            -6.3231217861175537e-01 2.4088147282600403e-01</leafValues></_>
        <_>
          <internalNodes>
            0 -1 90 -487064022 216976839 137851904 12703682 9172993
            202041344 939651872 1183314817</internalNodes>
          <leafValues>
            -6.7080605030059814e-01 2.0262943208217621e-01</leafValues></_>
        <_>
          <internalNodes>
            0 -1 0 -295276766 -337719030 -652553737 304137282 -906854342
            -819230661 2052315603 1311235380</internalNodes>
          <leafValues>
            -5.6614035367965698e-01 2.1527671813964844e-01</leafValues></_>
        <_>
          <internalNodes>
            0 -1 47 313527507 -23486291 291177907 1494947205 -760474917
            -1690630143 -1568073605 -1646291203</internalNodes>
          <leafValues>
            -3.9962366223335266e-01 3.5018870234489441e-01</leafValues></_>
        <_>
          <internalNodes>
            0 -1 95 732637442 -740863973 1493226290 -492007023 596410464
            1527300563 1101713648 -241108787</internalNodes>
          <leafValues>
            -4.6056589484214783e-01 3.0062097311019897e-01</leafValues></_></weakClassifiers></_>
    <!-- stage 12 -->
    <_>
      <maxWeakCount>10</maxWeakCount>
      <stageThreshold>-1.6296702623367310e+00</stageThreshold>
      <weakClassifiers>
        <_>
          <internalNodes>
            0 -1 15 -8193 -67333 -648353793 -612708106 -74814757
            -1888263505 -71827457 -8388609</internalNodes>
          <leafValues>
            -5.6786984205245972e-01 4.3739280104637146e-01</leafValues></_>
        <_>
          <internalNodes>
            0 -1 72 -461118206 -210514981 -1497900321 -148124413
            -24118593 -7630153 -488265289 -229377533</internalNodes>
          <leafValues>
            -3.8104873895645142e-01 3.4472078084945679e-01</leafValues></_>
        <_>
          <internalNodes>
            0 -1 18 -3158289 2012405847 -669618781 735232979 1753896607
            535261113 -737568517 1171781342</internalNodes>
          <leafValues>
            -4.3770730495452881e-01 2.9322183132171631e-01</leafValues></_>
        <_>
          <internalNodes>
            0 -1 19 75703927 -76939921 -47450661 -152649833 -39850017
            -558251630 -69469441 -1896471407</internalNodes>
          <leafValues>
            -4.5705202221870422e-01 2.9829573631286621e-01</leafValues></_>
        <_>
          <internalNodes>
            0 -1 25 -702779948 -678133282 -1077652109 2129983896
            -137759748 1530665332 -839075112 1060663288</internalNodes>
          <leafValues>
            -5.7835090160369873e-01 2.6411798596382141e-01</leafValues></_>
        <_>
          <internalNodes>
            0 -1 76 -1506877521 -1367441412 -1073807363 -1778614788
            -4203 -831127561 -588071428 -35752002</internalNodes>
          <leafValues>
            -3.1725323200225830e-01 4.2067176103591919e-01</leafValues></_>
        <_>
          <internalNodes>
            0 -1 74 -675437526 1537801002 269234180 1053502893
            2066809620 162603831 1858535438 1963059162</internalNodes>
          <leafValues>
            -5.6783181428909302e-01 2.2841434180736542e-01</leafValues></_>
        <_>
          <internalNodes>
            0 -1 100 -1628457029 -2051857129 -1725967823 -2017462742
            1002048304 530186475 482296304 1503131117</internalNodes>
          <leafValues>
            -4.4208428263664246e-01 3.0366888642311096e-01</leafValues></_>
        <_>
          <internalNodes>
            0 -1 56 -1126401368 -1290754420 -82620033 2076504335
            1795600621 -22306693 -49503817 1105494148</internalNodes>
          <leafValues>
            -6.0563296079635620e-01 2.2304329276084900e-01</leafValues></_>
        <_>
          <internalNodes>
            0 -1 11 -1362211730 -393939573 2047985011 -220565028
            2074235238 1586465658 2143745346 -1048913575</internalNodes>
          <leafValues>
            -4.7315961122512817e-01 2.6740640401840210e-01</leafValues></_></weakClassifiers></_></stages>
  <features>
    <_>
      <rect>
        0 0 3 2</rect></_>
    <_>
      <rect>
        0 1 1 1</rect></_>
    <_>
      <rect>
        0 1 2 1</rect></_>
    <_>
      <rect>
        0 2 1 1</rect></_>
    <_>
      <rect>
        0 2 2 2</rect></_>
    <_>
      <rect>
        0 2 6 3</rect></_>
    <_>
      <rect>
        0 3 2 2</rect></_>
    <_>
      <rect>
        0 4 1 1</rect></_>
    <_>
      <rect>
        0 4 1 2</rect></_>
    <_>
      <rect>
        0 4 3 2</rect></_>
    <_>
      <rect>
        0 5 1 1</rect></_>
    <_>
      <rect>
        0 5 1 2</rect></_>
    <_>
      <rect>
        0 7 2 2</rect></_>
    <_>
      <rect>
        0 7 3 2</rect></_>
    <_>
      <rect>
        0 8 1 1</rect></_>
    <_>
      <rect>
        0 10 1 1</rect></_>
    <_>
      <rect>
        1 0 5 1</rect></_>
    <_>
      <rect>
        1 1 4 3</rect></_>
    <_>
      <rect>
        1 4 5 2</rect></_>
    <_>
      <rect>
        2 0 1 1</rect></_>
    <_>
      <rect>
        2 0 3 1</rect></_>
    <_>
      <rect>
        3 2 4 3</rect></_>
    <_>
      <rect>
        4 0 4 1</rect></_>
    <_>
      <rect>
        4 2 9 3</rect></_>
    <_>
      <rect>
        5 2 13 3</rect></_>
    <_>
      <rect>
        5 10 1 1</rect></_>
    <_>
      <rect>
        5 10 3 1</rect></_>
    <_>
      <rect>
        6 0 2 1</rect></_>
    <_>
      <rect>
        6 1 5 2</rect></_>
    <_>
      <rect>
        6 5 5 2</rect></_>
    <_>
      <rect>
        6 6 1 1</rect></_>
    <_>
      <rect>
        6 7 7 2</rect></_>
    <_>
      <rect>
        6 7 8 2</rect></_>
    <_>
      <rect>
        6 7 14 2</rect></_>
    <_>
      <rect>
        8 0 2 1</rect></_>
    <_>
      <rect>
        8 0 9 1</rect></_>
    <_>
      <rect>
        8 10 4 1</rect></_>
    <_>
      <rect>
        11 10 7 1</rect></_>
    <_>
      <rect>
        13 0 5 1</rect></_>
    <_>
      <rect>
        14 5 1 1</rect></_>
    <_>
      <rect>
        15 6 1 1</rect></_>
    <_>
      <rect>
        16 0 2 1</rect></_>
    <_>
      <rect>
        16 10 2 1</rect></_>
    <_>
      <rect>
        17 0 3 1</rect></_>
    <_>
      <rect>
        17 5 1 1</rect></_>
    <_>
      <rect>
        17 9 5 1</rect></_>
    <_>
      <rect>
        18 6 2 1</rect></_>
    <_>
      <rect>
        18 8 8 1</rect></_>
    <_>
      <rect>
        19 0 4 1</rect></_>
    <_>
      <rect>
        19 1 8 3</rect></_>
    <_>
      <rect>
        19 3 2 2</rect></_>
    <_>
      <rect>
        19 5 5 1</rect></_>
    <_>
      <rect>
        19 10 4 1</rect></_>
    <_>
      <rect>
        20 0 2 3</rect></_>
    <_>
      <rect>
        20 0 5 1</rect></_>
    <_>
      <rect>
        20 0 9 2</rect></_>
    <_>
      <rect>
        20 2 5 2</rect></_>
    <_>
      <rect>
        20 10 5 1</rect></_>
    <_>
      <rect>
        20 10 6 1</rect></_>
    <_>
      <rect>
        21 3 2 2</rect></_>
    <_>
      <rect>
        22 0 6 1</rect></_>
    <_>
      <rect>
        22 1 2 3</rect></_>
    <_>
      <rect>
        22 2 7 2</rect></_>
    <_>
      <rect>
        22 7 8 2</rect></_>
    <_>
      <rect>
        23 0 4 1</rect></_>
    <_>
      <rect>
        23 0 5 1</rect></_>
    <_>
      <rect>
        23 6 2 2</rect></_>
    <_>
      <rect>
        23 10 4 1</rect></_>
    <_>
      <rect>
        24 6 6 2</rect></_>
    <_>
      <rect>
        25 6 1 1</rect></_>
    <_>
      <rect>
        26 5 2 1</rect></_>
    <_>
      <rect>
        27 5 1 1</rect></_>
    <_>
      <rect>
        29 0 2 3</rect></_>
    <_>
      <rect>
        29 2 1 2</rect></_>
    <_>
      <rect>
        30 5 2 2</rect></_>
    <_>
      <rect>
        33 10 4 1</rect></_>
    <_>
      <rect>
        35 1 4 1</rect></_>
    <_>
      <rect>
        35 10 2 1</rect></_>
    <_>
      <rect>
        36 3 2 2</rect></_>
    <_>
      <rect>
        37 9 5 1</rect></_>
    <_>
      <rect>
        37 10 3 1</rect></_>
    <_>
      <rect>
        38 0 2 1</rect></_>
    <_>
      <rect>
        40 0 2 1</rect></_>
    <_>
      <rect>
        40 0 4 2</rect></_>
    <_>
      <rect>
        40 1 4 3</rect></_>
    <_>
      <rect>
        42 10 2 1</rect></_>
    <_>
      <rect>
        43 7 3 2</rect></_>
    <_>
      <rect>
        43 9 3 1</rect></_>
    <_>
      <rect>
        46 0 2 3</rect></_>
    <_>
      <rect>
        46 4 2 2</rect></_>
    <_>
      <rect>
        46 5 2 2</rect></_>
    <_>
      <rect>
        46 6 2 2</rect></_>
    <_>
      <rect>
        46 10 2 1</rect></_>
    <_>
      <rect>
        49 1 1 3</rect></_>
    <_>
      <rect>
        49 2 1 1</rect></_>
    <_>
      <rect>
        49 3 1 3</rect></_>
    <_>
      <rect>
        49 4 1 1</rect></_>
    <_>
      <rect>
        49 5 1 1</rect></_>
    <_>
      <rect>
        49 7 1 1</rect></_>
    <_>
      <rect>
        49 9 1 1</rect></_>
    <_>
      <rect>
        49 10 1 1</rect></_></features></cascade>
</opencv_storage>
